{
    "layers": [
        {
            "neurons": [
                {
                    "bias": 0.11654459298260361,
                    "weights": [
                        0.11384578218805064,
                        -0.15656045039700614,
                        0.19542309551906395,
                        0.032789563800586397,
                        -0.16898753553817408,
                        0.1514653790610609,
                        0.1588764180702873,
                        0.03531367394874735
                    ],
                    "activation": 2
                },
                {
                    "bias": 0.10744702877129854,
                    "weights": [
                        -0.18136739030777294,
                        -0.09426961971196955,
                        0.19748622090654439,
                        -0.12097165851812074,
                        -0.015791981066694216,
                        -0.1739258947765733,
                        0.0369773410941438,
                        -0.17757345911579595
                    ],
                    "activation": 2
                },
                {
                    "bias": -0.15685597659929842,
                    "weights": [
                        -0.03929406452642739,
                        0.048715375699547925,
                        0.03381164097092343,
                        -0.03990926046250182,
                        0.058659556493407206,
                        -0.1397060069825925,
                        -0.015168583864808516,
                        0.16519939626797536
                    ],
                    "activation": 2
                },
                {
                    "bias": -0.09388006045391145,
                    "weights": [
                        0.19324827951480744,
                        0.05059859275449052,
                        0.15877368986614188,
                        0.10158870927086999,
                        -0.012136392490277398,
                        0.13012891266379034,
                        0.03887657915065251,
                        0.19066028951596592
                    ],
                    "activation": 2
                },
                {
                    "bias": 0.061448042855974994,
                    "weights": [
                        -0.027465061736732604,
                        -0.11935485274690621,
                        0.13385180756861442,
                        -0.1595922615067773,
                        -0.13167813364481473,
                        -0.14399776871224407,
                        0.14913208483102158,
                        0.14077013285275725
                    ],
                    "activation": 2
                },
                {
                    "bias": 0.08318919173436778,
                    "weights": [
                        -0.05790472789937126,
                        0.1395149886102684,
                        -0.075863013089961,
                        -0.08421428483064397,
                        -0.18697935606064742,
                        0.1842273299363405,
                        0.07728953904766339,
                        0.10958455390186561
                    ],
                    "activation": 2
                },
                {
                    "bias": -0.12150917944564382,
                    "weights": [
                        -0.041563855914956926,
                        0.06571085676176314,
                        0.016687906883363135,
                        0.13480168440357126,
                        -0.09334467487351224,
                        0.04409176473017698,
                        -0.11301980082586952,
                        0.044170305529155574
                    ],
                    "activation": 2
                },
                {
                    "bias": 0.1964055234538259,
                    "weights": [
                        0.17915801092921058,
                        -0.0680027265991103,
                        -0.13982261437324495,
                        0.08756990582426083,
                        0.14432653807450596,
                        -0.1555082339116047,
                        0.17435677722866372,
                        0.04264770662079473
                    ],
                    "activation": 2
                }
            ]
        },
        {
            "neurons": [
                {
                    "bias": -127.97364565810598,
                    "weights": [
                        21.127431782010746,
                        -0.18327017097643036,
                        21.162674930702615,
                        21.360399007597422,
                        21.228891592443198,
                        21.3875848407298,
                        2.2238061425067985,
                        21.27173745370267
                    ],
                    "activation": 2
                },
                {
                    "bias": 73.8999734777166,
                    "weights": [
                        -12.007436588643905,
                        0.11598274407366654,
                        -12.079340447546798,
                        -12.166039355251211,
                        -12.238321207728262,
                        -11.99013789212848,
                        2.040002402359276,
                        -12.312650652742018
                    ],
                    "activation": 2
                }
            ]
        }
    ]
}
